digraph Tree {
node [shape=box] ;
0 [label="Carne produzida (toneladas/ano) <= 15925296.0\nmse = 20181588739096.984\nsamples = 121\nvalue = 1500236.289"] ;
1 [label="Carne produzida (toneladas/ano) <= 2225564.0\nmse = 2377504845789.542\nsamples = 119\nvalue = 974333.933"] ;
0 -> 1 [labeldistance=2.5, labelangle=45, headlabel="True"] ;
2 [label="Carne produzida (toneladas/ano) <= 717366.0\nmse = 212894117838.821\nsamples = 100\nvalue = 388905.83"] ;
1 -> 2 ;
3 [label="Carne produzida (toneladas/ano) <= 303023.0\nmse = 31750169135.726\nsamples = 82\nvalue = 207759.073"] ;
2 -> 3 ;
4 [label="Carne produzida (toneladas/ano) <= 126773.0\nmse = 7637466732.564\nsamples = 63\nvalue = 125258.556"] ;
3 -> 4 ;
5 [label="Carne produzida (toneladas/ano) <= 53539.0\nmse = 1109008880.362\nsamples = 35\nvalue = 55933.543"] ;
4 -> 5 ;
6 [label="Carne produzida (toneladas/ano) <= 22961.0\nmse = 161401460.609\nsamples = 16\nvalue = 23321.375"] ;
5 -> 6 ;
7 [label="IDH <= 0.703\nmse = 49021441.484\nsamples = 8\nvalue = 13085.375"] ;
6 -> 7 ;
8 [label="Carne consumida/capita (kg/ano) <= 4.87\nmse = 1625625.0\nsamples = 2\nvalue = 2113.0"] ;
7 -> 8 ;
9 [label="mse = 0.0\nsamples = 1\nvalue = 3388.0"] ;
8 -> 9 ;
10 [label="mse = 0.0\nsamples = 1\nvalue = 838.0"] ;
8 -> 10 ;
11 [label="Carne produzida (toneladas/ano) <= 18242.0\nmse = 11312041.139\nsamples = 6\nvalue = 16742.833"] ;
7 -> 11 ;
12 [label="Taxa de desemprego (%) <= 33.45\nmse = 4649495.25\nsamples = 4\nvalue = 14746.5"] ;
11 -> 12 ;
13 [label="Carne produzida (toneladas/ano) <= 16205.0\nmse = 214780.222\nsamples = 3\nvalue = 15969.667"] ;
12 -> 13 ;
14 [label="Expectativa de vida (anos) <= 76.0\nmse = 24180.25\nsamples = 2\nvalue = 15654.5"] ;
13 -> 14 ;
15 [label="mse = 0.0\nsamples = 1\nvalue = 15810.0"] ;
14 -> 15 ;
16 [label="mse = 0.0\nsamples = 1\nvalue = 15499.0"] ;
14 -> 16 ;
17 [label="mse = 0.0\nsamples = 1\nvalue = 16600.0"] ;
13 -> 17 ;
18 [label="mse = 0.0\nsamples = 1\nvalue = 11077.0"] ;
12 -> 18 ;
19 [label="Carne produzida (toneladas/ano) <= 20735.5\nmse = 725052.25\nsamples = 2\nvalue = 20735.5"] ;
11 -> 19 ;
20 [label="mse = 0.0\nsamples = 1\nvalue = 19884.0"] ;
19 -> 20 ;
21 [label="mse = 0.0\nsamples = 1\nvalue = 21587.0"] ;
19 -> 21 ;
22 [label="Carne produzida (toneladas/ano) <= 38293.5\nmse = 64230087.734\nsamples = 8\nvalue = 33557.375"] ;
6 -> 22 ;
23 [label="Carne produzida (toneladas/ano) <= 33474.5\nmse = 13409993.667\nsamples = 6\nvalue = 29581.0"] ;
22 -> 23 ;
24 [label="Média de escolaridade (anos) <= 3.65\nmse = 5282987.36\nsamples = 5\nvalue = 28238.8"] ;
23 -> 24 ;
25 [label="mse = 0.0\nsamples = 1\nvalue = 24335.0"] ;
24 -> 25 ;
26 [label="Carne produzida (toneladas/ano) <= 29354.0\nmse = 1841342.188\nsamples = 4\nvalue = 29214.75"] ;
24 -> 26 ;
27 [label="Carne produzida (toneladas/ano) <= 27889.5\nmse = 156420.25\nsamples = 2\nvalue = 27889.5"] ;
26 -> 27 ;
28 [label="mse = 0.0\nsamples = 1\nvalue = 27494.0"] ;
27 -> 28 ;
29 [label="mse = 0.0\nsamples = 1\nvalue = 28285.0"] ;
27 -> 29 ;
30 [label="Expectativa de vida (anos) <= 71.95\nmse = 13689.0\nsamples = 2\nvalue = 30540.0"] ;
26 -> 30 ;
31 [label="mse = 0.0\nsamples = 1\nvalue = 30657.0"] ;
30 -> 31 ;
32 [label="mse = 0.0\nsamples = 1\nvalue = 30423.0"] ;
30 -> 32 ;
33 [label="mse = 0.0\nsamples = 1\nvalue = 36292.0"] ;
23 -> 33 ;
34 [label="Expectativa de vida (anos) <= 62.95\nmse = 26951672.25\nsamples = 2\nvalue = 45486.5"] ;
22 -> 34 ;
35 [label="mse = 0.0\nsamples = 1\nvalue = 40295.0"] ;
34 -> 35 ;
36 [label="mse = 0.0\nsamples = 1\nvalue = 50678.0"] ;
34 -> 36 ;
37 [label="Carne produzida (toneladas/ano) <= 88010.5\nmse = 257160403.612\nsamples = 19\nvalue = 83396.421"] ;
5 -> 37 ;
38 [label="Carne produzida (toneladas/ano) <= 71661.0\nmse = 60659832.889\nsamples = 12\nvalue = 72836.333"] ;
37 -> 38 ;
39 [label="Expectativa de vida (anos) <= 74.95\nmse = 24084220.56\nsamples = 5\nvalue = 65092.8"] ;
38 -> 39 ;
40 [label="Taxa de desemprego (%) <= 12.4\nmse = 6491284.5\nsamples = 4\nvalue = 67266.0"] ;
39 -> 40 ;
41 [label="Expectativa de vida (anos) <= 60.0\nmse = 40401.0\nsamples = 2\nvalue = 64732.0"] ;
40 -> 41 ;
42 [label="mse = 0.0\nsamples = 1\nvalue = 64933.0"] ;
41 -> 42 ;
43 [label="mse = 0.0\nsamples = 1\nvalue = 64531.0"] ;
41 -> 43 ;
44 [label="IDH <= 0.761\nmse = 99856.0\nsamples = 2\nvalue = 69800.0"] ;
40 -> 44 ;
45 [label="mse = 0.0\nsamples = 1\nvalue = 69484.0"] ;
44 -> 45 ;
46 [label="mse = 0.0\nsamples = 1\nvalue = 70116.0"] ;
44 -> 46 ;
47 [label="mse = 0.0\nsamples = 1\nvalue = 56400.0"] ;
39 -> 47 ;
48 [label="Carne produzida (toneladas/ano) <= 78724.5\nmse = 13362035.388\nsamples = 7\nvalue = 78367.429"] ;
38 -> 48 ;
49 [label="Taxa de desemprego (%) <= 25.3\nmse = 2278226.75\nsamples = 4\nvalue = 75547.5"] ;
48 -> 49 ;
50 [label="mse = 0.0\nsamples = 1\nvalue = 73206.0"] ;
49 -> 50 ;
51 [label="PIB per capita (U$) <= 8923.84\nmse = 600914.667\nsamples = 3\nvalue = 76328.0"] ;
49 -> 51 ;
52 [label="mse = 0.0\nsamples = 1\nvalue = 77314.0"] ;
51 -> 52 ;
53 [label="Coeficiente de desigualdade humana <= 10.85\nmse = 172225.0\nsamples = 2\nvalue = 75835.0"] ;
51 -> 53 ;
54 [label="mse = 0.0\nsamples = 1\nvalue = 75420.0"] ;
53 -> 54 ;
55 [label="mse = 0.0\nsamples = 1\nvalue = 76250.0"] ;
53 -> 55 ;
56 [label="Taxa de desemprego (%) <= 16.85\nmse = 3400900.222\nsamples = 3\nvalue = 82127.333"] ;
48 -> 56 ;
57 [label="mse = 0.0\nsamples = 1\nvalue = 84581.0"] ;
56 -> 57 ;
58 [label="Taxa de desemprego (%) <= 33.95\nmse = 585990.25\nsamples = 2\nvalue = 80900.5"] ;
56 -> 58 ;
59 [label="mse = 0.0\nsamples = 1\nvalue = 81666.0"] ;
58 -> 59 ;
60 [label="mse = 0.0\nsamples = 1\nvalue = 80135.0"] ;
58 -> 60 ;
61 [label="Carne consumida/capita (kg/ano) <= 5.18\nmse = 75130296.245\nsamples = 7\nvalue = 101499.429"] ;
37 -> 61 ;
62 [label="Coeficiente de desigualdade humana <= 35.15\nmse = 22257482.0\nsamples = 3\nvalue = 110350.0"] ;
61 -> 62 ;
63 [label="Média de escolaridade (anos) <= 7.0\nmse = 1591382.25\nsamples = 2\nvalue = 113605.5"] ;
62 -> 63 ;
64 [label="mse = 0.0\nsamples = 1\nvalue = 112344.0"] ;
63 -> 64 ;
65 [label="mse = 0.0\nsamples = 1\nvalue = 114867.0"] ;
63 -> 65 ;
66 [label="mse = 0.0\nsamples = 1\nvalue = 103839.0"] ;
62 -> 66 ;
67 [label="Carne produzida (toneladas/ano) <= 93955.5\nmse = 11973350.25\nsamples = 4\nvalue = 94861.5"] ;
61 -> 67 ;
68 [label="Carne produzida (toneladas/ano) <= 91752.0\nmse = 97344.0\nsamples = 2\nvalue = 91752.0"] ;
67 -> 68 ;
69 [label="mse = 0.0\nsamples = 1\nvalue = 91440.0"] ;
68 -> 69 ;
70 [label="mse = 0.0\nsamples = 1\nvalue = 92064.0"] ;
68 -> 70 ;
71 [label="PIB per capita (U$) <= 18388.702\nmse = 4511376.0\nsamples = 2\nvalue = 97971.0"] ;
67 -> 71 ;
72 [label="mse = 0.0\nsamples = 1\nvalue = 100095.0"] ;
71 -> 72 ;
73 [label="mse = 0.0\nsamples = 1\nvalue = 95847.0"] ;
71 -> 73 ;
74 [label="Carne produzida (toneladas/ano) <= 200735.5\nmse = 2281283900.718\nsamples = 28\nvalue = 211914.821"] ;
4 -> 74 ;
75 [label="Carne produzida (toneladas/ano) <= 151820.0\nmse = 276135675.36\nsamples = 10\nvalue = 157899.8"] ;
74 -> 75 ;
76 [label="Carne produzida (toneladas/ano) <= 141564.0\nmse = 7834420.5\nsamples = 4\nvalue = 141938.0"] ;
75 -> 76 ;
77 [label="Expectativa de vida (anos) <= 77.25\nmse = 493506.25\nsamples = 2\nvalue = 139381.5"] ;
76 -> 77 ;
78 [label="mse = 0.0\nsamples = 1\nvalue = 138679.0"] ;
77 -> 78 ;
79 [label="mse = 0.0\nsamples = 1\nvalue = 140084.0"] ;
77 -> 79 ;
80 [label="Carne consumida/capita (kg/ano) <= 14.57\nmse = 2103950.25\nsamples = 2\nvalue = 144494.5"] ;
76 -> 80 ;
81 [label="mse = 0.0\nsamples = 1\nvalue = 145945.0"] ;
80 -> 81 ;
82 [label="mse = 0.0\nsamples = 1\nvalue = 143044.0"] ;
80 -> 82 ;
83 [label="PIB per capita (U$) <= 16461.957\nmse = 171915335.0\nsamples = 6\nvalue = 168541.0"] ;
75 -> 83 ;
84 [label="Taxa de desemprego (%) <= 11.9\nmse = 17007748.56\nsamples = 5\nvalue = 162924.2"] ;
83 -> 84 ;
85 [label="Taxa de desemprego (%) <= 9.0\nmse = 227052.25\nsamples = 2\nvalue = 158171.5"] ;
84 -> 85 ;
86 [label="mse = 0.0\nsamples = 1\nvalue = 158648.0"] ;
85 -> 86 ;
87 [label="mse = 0.0\nsamples = 1\nvalue = 157695.0"] ;
85 -> 87 ;
88 [label="IDH <= 0.571\nmse = 3096926.889\nsamples = 3\nvalue = 166092.667"] ;
84 -> 88 ;
89 [label="Taxa de desemprego (%) <= 26.85\nmse = 344569.0\nsamples = 2\nvalue = 167290.0"] ;
88 -> 89 ;
90 [label="mse = 0.0\nsamples = 1\nvalue = 166703.0"] ;
89 -> 90 ;
91 [label="mse = 0.0\nsamples = 1\nvalue = 167877.0"] ;
89 -> 91 ;
92 [label="mse = 0.0\nsamples = 1\nvalue = 163698.0"] ;
88 -> 92 ;
93 [label="mse = 0.0\nsamples = 1\nvalue = 196625.0"] ;
83 -> 93 ;
94 [label="Carne produzida (toneladas/ano) <= 243297.0\nmse = 873852942.028\nsamples = 18\nvalue = 241923.167"] ;
74 -> 94 ;
95 [label="Carne produzida (toneladas/ano) <= 211449.5\nmse = 104564531.6\nsamples = 10\nvalue = 218397.0"] ;
94 -> 95 ;
96 [label="Média de escolaridade (anos) <= 8.0\nmse = 194654.0\nsamples = 3\nvalue = 205457.0"] ;
95 -> 96 ;
97 [label="PIB per capita (U$) <= 3151.625\nmse = 11990.25\nsamples = 2\nvalue = 205762.5"] ;
96 -> 97 ;
98 [label="mse = 0.0\nsamples = 1\nvalue = 205872.0"] ;
97 -> 98 ;
99 [label="mse = 0.0\nsamples = 1\nvalue = 205653.0"] ;
97 -> 99 ;
100 [label="mse = 0.0\nsamples = 1\nvalue = 204846.0"] ;
96 -> 100 ;
101 [label="Carne produzida (toneladas/ano) <= 229055.0\nmse = 46777989.347\nsamples = 7\nvalue = 223942.714"] ;
95 -> 101 ;
102 [label="Carne produzida (toneladas/ano) <= 220107.0\nmse = 7435786.64\nsamples = 5\nvalue = 219874.6"] ;
101 -> 102 ;
103 [label="PIB per capita (U$) <= 14533.987\nmse = 862328.667\nsamples = 3\nvalue = 217934.0"] ;
102 -> 103 ;
104 [label="Taxa de desemprego (%) <= 20.45\nmse = 72361.0\nsamples = 2\nvalue = 217296.0"] ;
103 -> 104 ;
105 [label="mse = 0.0\nsamples = 1\nvalue = 217027.0"] ;
104 -> 105 ;
106 [label="mse = 0.0\nsamples = 1\nvalue = 217565.0"] ;
104 -> 106 ;
107 [label="mse = 0.0\nsamples = 1\nvalue = 219210.0"] ;
103 -> 107 ;
108 [label="Expectativa de vida (anos) <= 67.9\nmse = 3173742.25\nsamples = 2\nvalue = 222785.5"] ;
102 -> 108 ;
109 [label="mse = 0.0\nsamples = 1\nvalue = 224567.0"] ;
108 -> 109 ;
110 [label="mse = 0.0\nsamples = 1\nvalue = 221004.0"] ;
108 -> 110 ;
111 [label="IDH <= 0.716\nmse = 324900.0\nsamples = 2\nvalue = 234113.0"] ;
101 -> 111 ;
112 [label="mse = 0.0\nsamples = 1\nvalue = 233543.0"] ;
111 -> 112 ;
113 [label="mse = 0.0\nsamples = 1\nvalue = 234683.0"] ;
111 -> 113 ;
114 [label="Carne produzida (toneladas/ano) <= 275717.0\nmse = 278799498.109\nsamples = 8\nvalue = 271330.875"] ;
94 -> 114 ;
115 [label="Carne produzida (toneladas/ano) <= 257765.5\nmse = 22543615.36\nsamples = 5\nvalue = 258980.8"] ;
114 -> 115 ;
116 [label="Carne consumida/capita (kg/ano) <= 10.0\nmse = 3823980.25\nsamples = 2\nvalue = 253866.5"] ;
115 -> 116 ;
117 [label="mse = 0.0\nsamples = 1\nvalue = 255822.0"] ;
116 -> 117 ;
118 [label="mse = 0.0\nsamples = 1\nvalue = 251911.0"] ;
116 -> 118 ;
119 [label="Coeficiente de desigualdade humana <= 34.0\nmse = 5961078.222\nsamples = 3\nvalue = 262390.333"] ;
115 -> 119 ;
120 [label="IDH <= 0.589\nmse = 1142761.0\nsamples = 2\nvalue = 260778.0"] ;
119 -> 120 ;
121 [label="mse = 0.0\nsamples = 1\nvalue = 261847.0"] ;
120 -> 121 ;
122 [label="mse = 0.0\nsamples = 1\nvalue = 259709.0"] ;
120 -> 122 ;
123 [label="mse = 0.0\nsamples = 1\nvalue = 265615.0"] ;
119 -> 123 ;
124 [label="Carne consumida/capita (kg/ano) <= 6.775\nmse = 28006624.889\nsamples = 3\nvalue = 291914.333"] ;
114 -> 124 ;
125 [label="IDH <= 0.622\nmse = 7241481.0\nsamples = 2\nvalue = 288510.0"] ;
124 -> 125 ;
126 [label="mse = 0.0\nsamples = 1\nvalue = 291201.0"] ;
125 -> 126 ;
127 [label="mse = 0.0\nsamples = 1\nvalue = 285819.0"] ;
125 -> 127 ;
128 [label="mse = 0.0\nsamples = 1\nvalue = 298723.0"] ;
124 -> 128 ;
129 [label="Carne produzida (toneladas/ano) <= 507628.0\nmse = 14302457404.981\nsamples = 19\nvalue = 481313.421"] ;
3 -> 129 ;
130 [label="Carne produzida (toneladas/ano) <= 405752.5\nmse = 3815322293.556\nsamples = 12\nvalue = 402157.667"] ;
129 -> 130 ;
131 [label="Carne produzida (toneladas/ano) <= 369636.5\nmse = 584530698.917\nsamples = 6\nvalue = 344104.5"] ;
130 -> 131 ;
132 [label="PIB per capita (U$) <= 1737.097\nmse = 269516397.2\nsamples = 5\nvalue = 335620.0"] ;
131 -> 132 ;
133 [label="PIB per capita (U$) <= 1610.207\nmse = 108545142.25\nsamples = 2\nvalue = 317741.5"] ;
132 -> 133 ;
134 [label="mse = 0.0\nsamples = 1\nvalue = 307323.0"] ;
133 -> 134 ;
135 [label="mse = 0.0\nsamples = 1\nvalue = 328160.0"] ;
133 -> 135 ;
136 [label="PIB per capita (U$) <= 32245.844\nmse = 21674164.667\nsamples = 3\nvalue = 347539.0"] ;
132 -> 136 ;
137 [label="Média de escolaridade (anos) <= 4.3\nmse = 4667760.25\nsamples = 2\nvalue = 350585.5"] ;
136 -> 137 ;
138 [label="mse = 0.0\nsamples = 1\nvalue = 348425.0"] ;
137 -> 138 ;
139 [label="mse = 0.0\nsamples = 1\nvalue = 352746.0"] ;
137 -> 139 ;
140 [label="mse = 0.0\nsamples = 1\nvalue = 341446.0"] ;
136 -> 140 ;
141 [label="mse = 0.0\nsamples = 1\nvalue = 386527.0"] ;
131 -> 141 ;
142 [label="Taxa de desemprego (%) <= 7.55\nmse = 305773568.139\nsamples = 6\nvalue = 460210.833"] ;
130 -> 142 ;
143 [label="mse = 0.0\nsamples = 1\nvalue = 424978.0"] ;
142 -> 143 ;
144 [label="Carne produzida (toneladas/ano) <= 466178.0\nmse = 69003671.04\nsamples = 5\nvalue = 467257.4"] ;
142 -> 144 ;
145 [label="Expectativa de vida (anos) <= 77.4\nmse = 10036224.0\nsamples = 2\nvalue = 457517.0"] ;
144 -> 145 ;
146 [label="mse = 0.0\nsamples = 1\nvalue = 460685.0"] ;
145 -> 146 ;
147 [label="mse = 0.0\nsamples = 1\nvalue = 454349.0"] ;
145 -> 147 ;
148 [label="IDH <= 0.586\nmse = 2898200.0\nsamples = 3\nvalue = 473751.0"] ;
144 -> 148 ;
149 [label="mse = 0.0\nsamples = 1\nvalue = 475841.0"] ;
148 -> 149 ;
150 [label="Carne produzida (toneladas/ano) <= 472706.0\nmse = 1071225.0\nsamples = 2\nvalue = 472706.0"] ;
148 -> 150 ;
151 [label="mse = 0.0\nsamples = 1\nvalue = 471671.0"] ;
150 -> 151 ;
152 [label="mse = 0.0\nsamples = 1\nvalue = 473741.0"] ;
150 -> 152 ;
153 [label="Carne produzida (toneladas/ano) <= 630169.0\nmse = 3126027246.0\nsamples = 7\nvalue = 617009.0"] ;
129 -> 153 ;
154 [label="Carne consumida/capita (kg/ano) <= 10.63\nmse = 978301710.188\nsamples = 4\nvalue = 573978.75"] ;
153 -> 154 ;
155 [label="Expectativa de vida (anos) <= 75.4\nmse = 4981824.0\nsamples = 2\nvalue = 605123.0"] ;
154 -> 155 ;
156 [label="mse = 0.0\nsamples = 1\nvalue = 607355.0"] ;
155 -> 156 ;
157 [label="mse = 0.0\nsamples = 1\nvalue = 602891.0"] ;
155 -> 157 ;
158 [label="Carne produzida (toneladas/ano) <= 542834.5\nmse = 11692980.25\nsamples = 2\nvalue = 542834.5"] ;
154 -> 158 ;
159 [label="mse = 0.0\nsamples = 1\nvalue = 539415.0"] ;
158 -> 159 ;
160 [label="mse = 0.0\nsamples = 1\nvalue = 546254.0"] ;
158 -> 160 ;
161 [label="Taxa de desemprego (%) <= 18.95\nmse = 229120446.889\nsamples = 3\nvalue = 674382.667"] ;
153 -> 161 ;
162 [label="PIB per capita (U$) <= 15623.966\nmse = 221370.25\nsamples = 2\nvalue = 685082.5"] ;
161 -> 162 ;
163 [label="mse = 0.0\nsamples = 1\nvalue = 685553.0"] ;
162 -> 163 ;
164 [label="mse = 0.0\nsamples = 1\nvalue = 684612.0"] ;
162 -> 164 ;
165 [label="mse = 0.0\nsamples = 1\nvalue = 652983.0"] ;
161 -> 165 ;
166 [label="Carne produzida (toneladas/ano) <= 1607557.5\nmse = 207623928658.941\nsamples = 18\nvalue = 1214129.944"] ;
2 -> 166 ;
167 [label="Carne produzida (toneladas/ano) <= 1179772.0\nmse = 45026181762.087\nsamples = 14\nvalue = 993595.643"] ;
166 -> 167 ;
168 [label="Carne produzida (toneladas/ano) <= 894934.5\nmse = 7688258067.355\nsamples = 11\nvalue = 890764.091"] ;
167 -> 168 ;
169 [label="IDH <= 0.574\nmse = 1378977635.139\nsamples = 6\nvalue = 819480.833"] ;
168 -> 169 ;
170 [label="mse = 0.0\nsamples = 1\nvalue = 749179.0"] ;
169 -> 170 ;
171 [label="Coeficiente de desigualdade humana <= 8.85\nmse = 468609697.36\nsamples = 5\nvalue = 833541.2"] ;
169 -> 171 ;
172 [label="mse = 0.0\nsamples = 1\nvalue = 869810.0"] ;
171 -> 172 ;
173 [label="IDH <= 0.767\nmse = 174691542.5\nsamples = 4\nvalue = 824474.0"] ;
171 -> 173 ;
174 [label="Carne consumida/capita (kg/ano) <= 20.685\nmse = 38334672.25\nsamples = 2\nvalue = 812108.5"] ;
173 -> 174 ;
175 [label="mse = 0.0\nsamples = 1\nvalue = 805917.0"] ;
174 -> 175 ;
176 [label="mse = 0.0\nsamples = 1\nvalue = 818300.0"] ;
174 -> 176 ;
177 [label="Carne produzida (toneladas/ano) <= 836839.5\nmse = 5237232.25\nsamples = 2\nvalue = 836839.5"] ;
173 -> 177 ;
178 [label="mse = 0.0\nsamples = 1\nvalue = 834551.0"] ;
177 -> 178 ;
179 [label="mse = 0.0\nsamples = 1\nvalue = 839128.0"] ;
177 -> 179 ;
180 [label="Carne produzida (toneladas/ano) <= 993813.5\nmse = 1844755166.0\nsamples = 5\nvalue = 976304.0"] ;
168 -> 180 ;
181 [label="Expectativa de vida (anos) <= 76.3\nmse = 444291289.556\nsamples = 3\nvalue = 944152.333"] ;
180 -> 181 ;
182 [label="mse = 0.0\nsamples = 1\nvalue = 971400.0"] ;
181 -> 182 ;
183 [label="Expectativa de vida (anos) <= 81.35\nmse = 109610430.25\nsamples = 2\nvalue = 930528.5"] ;
181 -> 183 ;
184 [label="mse = 0.0\nsamples = 1\nvalue = 940998.0"] ;
183 -> 184 ;
185 [label="mse = 0.0\nsamples = 1\nvalue = 920059.0"] ;
183 -> 185 ;
186 [label="Média de escolaridade (anos) <= 7.9\nmse = 68964720.25\nsamples = 2\nvalue = 1024531.5"] ;
180 -> 186 ;
187 [label="mse = 0.0\nsamples = 1\nvalue = 1032836.0"] ;
186 -> 187 ;
188 [label="mse = 0.0\nsamples = 1\nvalue = 1016227.0"] ;
186 -> 188 ;
189 [label="Coeficiente de desigualdade humana <= 19.2\nmse = 993399341.555\nsamples = 3\nvalue = 1370644.667"] ;
167 -> 189 ;
190 [label="mse = 0.0\nsamples = 1\nvalue = 1326708.0"] ;
189 -> 190 ;
191 [label="Taxa de desemprego (%) <= 11.4\nmse = 42276004.0\nsamples = 2\nvalue = 1392613.0"] ;
189 -> 191 ;
192 [label="mse = 0.0\nsamples = 1\nvalue = 1386111.0"] ;
191 -> 192 ;
193 [label="mse = 0.0\nsamples = 1\nvalue = 1399115.0"] ;
191 -> 193 ;
194 [label="Expectativa de vida (anos) <= 80.7\nmse = 10708836516.5\nsamples = 4\nvalue = 1986000.0"] ;
166 -> 194 ;
195 [label="Carne produzida (toneladas/ano) <= 2021230.5\nmse = 1434004244.222\nsamples = 3\nvalue = 2042666.667"] ;
194 -> 195 ;
196 [label="mse = 0.0\nsamples = 1\nvalue = 1993437.0"] ;
195 -> 196 ;
197 [label="Coeficiente de desigualdade humana <= 15.45\nmse = 333336306.25\nsamples = 2\nvalue = 2067281.5"] ;
195 -> 197 ;
198 [label="mse = 0.0\nsamples = 1\nvalue = 2085539.0"] ;
197 -> 198 ;
199 [label="mse = 0.0\nsamples = 1\nvalue = 2049024.0"] ;
197 -> 199 ;
200 [label="mse = 0.0\nsamples = 1\nvalue = 1816000.0"] ;
194 -> 200 ;
201 [label="Carne produzida (toneladas/ano) <= 4581276.0\nmse = 2472574727395.514\nsamples = 19\nvalue = 4055534.474"] ;
1 -> 201 ;
202 [label="Carne produzida (toneladas/ano) <= 3383341.0\nmse = 479206965034.545\nsamples = 13\nvalue = 3149357.385"] ;
201 -> 202 ;
203 [label="Carne produzida (toneladas/ano) <= 2718708.5\nmse = 81507845713.234\nsamples = 8\nvalue = 2658718.625"] ;
202 -> 203 ;
204 [label="Carne produzida (toneladas/ano) <= 2474784.0\nmse = 13129586017.359\nsamples = 5\nvalue = 2469325.2"] ;
203 -> 204 ;
205 [label="Taxa de desemprego (%) <= 12.6\nmse = 159214302.0\nsamples = 3\nvalue = 2379800.0"] ;
204 -> 205 ;
206 [label="mse = 0.0\nsamples = 1\nvalue = 2396252.0"] ;
205 -> 206 ;
207 [label="Carne produzida (toneladas/ano) <= 2371574.0\nmse = 35820225.0\nsamples = 2\nvalue = 2371574.0"] ;
205 -> 207 ;
208 [label="mse = 0.0\nsamples = 1\nvalue = 2365589.0"] ;
207 -> 208 ;
209 [label="mse = 0.0\nsamples = 1\nvalue = 2377559.0"] ;
207 -> 209 ;
210 [label="Média de escolaridade (anos) <= 8.5\nmse = 2529788209.0\nsamples = 2\nvalue = 2603613.0"] ;
204 -> 210 ;
211 [label="mse = 0.0\nsamples = 1\nvalue = 2653910.0"] ;
210 -> 211 ;
212 [label="mse = 0.0\nsamples = 1\nvalue = 2553316.0"] ;
210 -> 212 ;
213 [label="PIB per capita (U$) <= 23357.578\nmse = 36049969947.555\nsamples = 3\nvalue = 2974374.333"] ;
203 -> 213 ;
214 [label="Carne produzida (toneladas/ano) <= 2844877.0\nmse = 3766276900.0\nsamples = 2\nvalue = 2844877.0"] ;
213 -> 214 ;
215 [label="mse = 0.0\nsamples = 1\nvalue = 2783507.0"] ;
214 -> 215 ;
216 [label="mse = 0.0\nsamples = 1\nvalue = 2906247.0"] ;
214 -> 216 ;
217 [label="mse = 0.0\nsamples = 1\nvalue = 3233369.0"] ;
213 -> 217 ;
218 [label="Carne produzida (toneladas/ano) <= 3815776.0\nmse = 114103763411.041\nsamples = 5\nvalue = 3934379.4"] ;
202 -> 218 ;
219 [label="IDH <= 0.882\nmse = 632195592.25\nsamples = 2\nvalue = 3558456.5"] ;
218 -> 219 ;
220 [label="mse = 0.0\nsamples = 1\nvalue = 3583600.0"] ;
219 -> 220 ;
221 [label="mse = 0.0\nsamples = 1\nvalue = 3533313.0"] ;
219 -> 221 ;
222 [label="Carne produzida (toneladas/ano) <= 4253516.0\nmse = 32731445574.223\nsamples = 3\nvalue = 4184994.667"] ;
218 -> 222 ;
223 [label="Coeficiente de desigualdade humana <= 9.6\nmse = 85100625.0\nsamples = 2\nvalue = 4057177.0"] ;
222 -> 223 ;
224 [label="mse = 0.0\nsamples = 1\nvalue = 4047952.0"] ;
223 -> 224 ;
225 [label="mse = 0.0\nsamples = 1\nvalue = 4066402.0"] ;
223 -> 225 ;
226 [label="mse = 0.0\nsamples = 1\nvalue = 4440630.0"] ;
222 -> 226 ;
227 [label="IDH <= 0.912\nmse = 1157489367009.469\nsamples = 6\nvalue = 6018918.167"] ;
201 -> 227 ;
228 [label="Carne consumida/capita (kg/ano) <= 40.285\nmse = 225724677943.039\nsamples = 5\nvalue = 5578603.4"] ;
227 -> 228 ;
229 [label="Taxa de desemprego (%) <= 32.55\nmse = 52811153333.188\nsamples = 4\nvalue = 5792773.75"] ;
228 -> 229 ;
230 [label="Carne produzida (toneladas/ano) <= 5958667.0\nmse = 16205450260.227\nsamples = 3\nvalue = 5909188.333"] ;
229 -> 230 ;
231 [label="Taxa de desemprego (%) <= 16.0\nmse = 82728120.25\nsamples = 2\nvalue = 5819326.5"] ;
230 -> 231 ;
232 [label="mse = 0.0\nsamples = 1\nvalue = 5828422.0"] ;
231 -> 232 ;
233 [label="mse = 0.0\nsamples = 1\nvalue = 5810231.0"] ;
231 -> 233 ;
234 [label="mse = 0.0\nsamples = 1\nvalue = 6088912.0"] ;
230 -> 234 ;
235 [label="mse = 0.0\nsamples = 1\nvalue = 5443530.0"] ;
229 -> 235 ;
236 [label="mse = 0.0\nsamples = 1\nvalue = 4721922.0"] ;
228 -> 236 ;
237 [label="mse = 0.0\nsamples = 1\nvalue = 8220492.0"] ;
227 -> 237 ;
238 [label="PIB per capita (U$) <= 31393.597\nmse = 83929884916950.25\nsamples = 2\nvalue = 32791426.5"] ;
0 -> 238 [labeldistance=2.5, labelangle=-45, headlabel="False"] ;
239 [label="mse = 0.0\nsamples = 1\nvalue = 23630101.0"] ;
238 -> 239 ;
240 [label="mse = 0.0\nsamples = 1\nvalue = 41952752.0"] ;
238 -> 240 ;
}